<?xml version="1.0"?>
<opencv_storage>
<stage1>
  <maxWeakCount>5</maxWeakCount>
  <stageThreshold>-1.8013306856155396e+00</stageThreshold>
  <weakClassifiers>
    <_>
      <internalNodes>
        0 -1 23844 1.9372984766960144e-01</internalNodes>
      <leafValues>
        -9.5503419637680054e-01 1.</leafValues></_>
    <_>
      <internalNodes>
        0 -1 16662 1.1017410457134247e-01</internalNodes>
      <leafValues>
        -8.1417417526245117e-01 6.6168630123138428e-01</leafValues></_>
    <_>
      <internalNodes>
        0 -1 27476 1.8489277362823486e-01</internalNodes>
      <leafValues>
        -6.1754316091537476e-01 5.1621067523956299e-01</leafValues></_>
    <_>
      <internalNodes>
        0 -1 80776 -6.0519867110997438e-04</internalNodes>
      <leafValues>
        3.7119951844215393e-01 -9.0699964761734009e-01</leafValues></_>
    <_>
      <internalNodes>
        0 -1 10540 -3.7611147854477167e-04</internalNodes>
      <leafValues>
        3.5866668820381165e-01 -7.7151340246200562e-01</leafValues></_></weakClassifiers></stage1>
</opencv_storage>
