<?xml version="1.0"?>
<opencv_storage>
<stage9>
  <maxWeakCount>5</maxWeakCount>
  <stageThreshold>-1.8399640321731567e+00</stageThreshold>
  <weakClassifiers>
    <_>
      <internalNodes>
        0 -1 45842 1.2645268440246582e-01</internalNodes>
      <leafValues>
        -9.5694714784622192e-01 1.</leafValues></_>
    <_>
      <internalNodes>
        0 -1 156744 -2.5499537587165833e-02</internalNodes>
      <leafValues>
        5.1561790704727173e-01 -8.0196458101272583e-01</leafValues></_>
    <_>
      <internalNodes>
        0 -1 50344 -7.3699861764907837e-02</internalNodes>
      <leafValues>
        4.5171347260475159e-01 -6.3434720039367676e-01</leafValues></_>
    <_>
      <internalNodes>
        0 -1 12654 1.0579454101389274e-04</internalNodes>
      <leafValues>
        2.7543717622756958e-01 -8.6290746927261353e-01</leafValues></_>
    <_>
      <internalNodes>
        0 -1 6692 1.7965621373150498e-04</internalNodes>
      <leafValues>
        -7.3971456289291382e-01 3.3014172315597534e-01</leafValues></_></weakClassifiers></stage9>
</opencv_storage>
