<?xml version="1.0"?>
<opencv_storage>
<stage3>
  <maxWeakCount>5</maxWeakCount>
  <stageThreshold>-2.5335223674774170e+00</stageThreshold>
  <weakClassifiers>
    <_>
      <internalNodes>
        0 -1 47606 1.2494161725044250e-01</internalNodes>
      <leafValues>
        -9.5112413167953491e-01 4.2857143282890320e-01</leafValues></_>
    <_>
      <internalNodes>
        0 -1 38910 -3.7052728235721588e-02</internalNodes>
      <leafValues>
        -8.1523016095161438e-02 -8.8602954149246216e-01</leafValues></_>
    <_>
      <internalNodes>
        0 -1 146428 -7.2999298572540283e-03</internalNodes>
      <leafValues>
        5.7169580459594727e-01 -5.3658217191696167e-01</leafValues></_>
    <_>
      <internalNodes>
        0 -1 81576 3.8940052036195993e-03</internalNodes>
      <leafValues>
        -5.2590256929397583e-01 5.6449288129806519e-01</leafValues></_>
    <_>
      <internalNodes>
        0 -1 114924 -1.3939880300313234e-03</internalNodes>
      <leafValues>
        3.7938719987869263e-01 -7.4216198921203613e-01</leafValues></_></weakClassifiers></stage3>
</opencv_storage>
